<?xml version="1.0"?>
<opencv_storage>
<my_nn type_id="opencv-ml-ann-mlp">
  <layer_sizes type_id="opencv-matrix">
    <rows>1</rows>
    <cols>3</cols>
    <dt>i</dt>
    <data>
      256 4 26</data></layer_sizes>
  <activation_function>SIGMOID_SYM</activation_function>
  <f_param1>6.6666666666666663e-01</f_param1>
  <f_param2>1.7159000000000000e+00</f_param2>
  <min_val>-9.4999999999999996e-01</min_val>
  <max_val>9.4999999999999996e-01</max_val>
  <min_val1>-9.7999999999999998e-01</min_val1>
  <max_val1>9.7999999999999998e-01</max_val1>
  <training_params>
    <train_method>BACKPROP</train_method>
    <dw_scale>1.0000000000000000e-03</dw_scale>
    <moment_scale>0.</moment_scale>
    <term_criteria><epsilon>1.1920928955078125e-07</epsilon>
      <iterations>300</iterations></term_criteria></training_params>
  <input_scale>
    3.2190676977166782e-01 -3.8120538525592240e-01
    2.3551658066958164e-01 -3.2848365198652174e-01
    2.1888024654684857e-01 -3.0816034711201051e-01
    3.4141131864331452e-02 -2.0215143867038360e-01
    1.2026805204628337e-02 -4.2157117190960380e-01
    1.0894481532985620e-02 -6.1553820661368752e-01
    1.1710559344690343e-02 -5.1434009332337316e-01
    1.5257554159031878e-02 -3.9810170917579224e-01
    1.0895056584128754e-02 -6.1944130921079410e-01
    1.3382219121302811e-02 -4.8968357074135682e-01
    2.3572488896694051e-02 -2.5371441996704913e-01
    3.7779146409996286e-02 -1.4117470500577559e-01
    1.5989267318466965e-01 -2.0196969244379323e-01
    6.4405230142735082e-02 -1.6864001050531949e-01
    1.4819235865803362e-01 -1.2869336409776605e-01
    7.2396746772863216e-02 -1.6289268023894224e-01
    2.9781487989300853e-01 -3.0957073041510097e-01
    2.3460813241593476e-01 -3.3956440218095824e-01
    2.4115078385263869e-01 -3.7124528566787801e-01
    1.5938334361531449e-02 -3.8147145004770666e-01
    9.7170659630518921e-03 -5.8711535397808268e-01
    9.4471633384407474e-03 -6.4141266876781911e-01
    9.0962722191026517e-03 -8.1758730958802917e-01
    9.8498446944888015e-03 -7.5247629337107869e-01
    9.7114842162669690e-03 -8.2253715658040105e-01
    9.5078686403464157e-03 -7.0358227938563478e-01
    1.2652484151559208e-02 -4.4616654639708786e-01
    1.3134414882791042e-02 -3.8141649534631356e-01
    1.3762936122379520e-02 -3.7703201324729158e-01
    1.6928570824876824e-02 -2.9402254590575533e-01
    2.4761402076374020e-02 -1.9157505816984111e-01
    3.4013702049245698e-02 -1.3560725948580851e-01
    2.3410006154935631e-01 -3.6347114819505322e-01
    2.1161462142241474e-01 -4.0095401953720688e-01
    6.7048187143388532e-02 -2.6642832259609656e-01
    1.1089724820480346e-02 -5.4573119511311174e-01
    8.6060639850658784e-03 -8.9537036749889343e-01
    9.5501612227915453e-03 -7.9354300160432378e-01
    8.3155509904693538e-03 -9.7532659906636598e-01
    9.2010206456705525e-03 -1.0594491009245133e+00
    9.2093229502196693e-03 -1.1043917022145009e+00
    9.2959479280628112e-03 -9.2421292821635004e-01
    1.0447096332743114e-02 -6.0978051752695339e-01
    1.0440842613667215e-02 -5.3413152739392278e-01
    1.1340924187687966e-02 -4.3811780809278772e-01
    1.1995757060242843e-02 -4.4115974978129929e-01
    1.4449908074835555e-02 -3.2474267094498854e-01
    2.3754404484204839e-02 -2.1472731421906216e-01
    4.0496063867490682e-02 -2.2858962367307240e-01
    2.1186196876827898e-01 -3.7633376031207449e-01
    2.4749204607152488e-02 -3.3346296733847564e-01
    1.0259599260312880e-02 -6.2705050742307011e-01
    8.6420844381683397e-03 -1.1100530037552543e+00
    9.2844113450551349e-03 -9.9269903407786875e-01
    8.9610084461235594e-03 -1.0490275282258066e+00
    9.4031299296035917e-03 -1.1539867480712198e+00
    9.4293105877713383e-03 -1.2377210845211430e+00
    9.3421172876689308e-03 -9.8706844499975677e-01
    8.7322500581955027e-03 -9.3929137139142405e-01
    9.5717437759565045e-03 -6.3601718511289929e-01
    1.0266747351752205e-02 -5.5480962333745143e-01
    1.1055842086643579e-02 -5.2238853859390910e-01
    1.5545832628556003e-02 -4.2301028784018174e-01
    1.8001284719246325e-02 -3.3633979343854981e-01
    2.9754497623288946e-02 -3.1633729052128251e-01
    2.8942717666743341e-02 -3.5987984467200601e-01
    1.7905608407541726e-02 -4.6695941925983814e-01
    8.8193746598363848e-03 -1.0251362598025608e+00
    1.0200672581762361e-02 -1.8465901760511390e+00
    1.0182465734592437e-02 -1.6113752024992531e+00
    9.2801196053789430e-03 -1.1950596128663646e+00
    1.0711806941371067e-02 -1.6813308553107298e+00
    1.2450121464751340e-02 -2.5067336664950659e+00
    9.5070991057977644e-03 -1.5481560333335938e+00
    8.7861532363782569e-03 -1.1357259130813158e+00
    9.6149263748309087e-03 -7.9892447443496295e-01
    9.2255451414802719e-03 -6.5003676621877449e-01
    9.4052558227122000e-03 -6.6245176867076860e-01
    1.5937582971050496e-02 -4.0577925064450932e-01
    2.0266131287585566e-02 -3.7625672693135831e-01
    2.5283142737174566e-02 -3.6993229899655417e-01
    1.7559573824657202e-02 -5.3995689510820899e-01
    9.8579192822646350e-03 -8.0692257703905657e-01
    1.0277572643720399e-02 -1.7517852108783427e+00
    1.4032210480886393e-02 -2.8343218827906185e+00
    1.2546923517830440e-02 -2.3981133028948021e+00
    1.0331735330503026e-02 -1.5944858380456577e+00
    1.1677364698682148e-02 -1.8769827257776461e+00
    1.2103189546312104e-02 -2.3669698187741686e+00
    9.7519710802464778e-03 -1.7118558708101086e+00
    9.0803921172507070e-03 -1.4651690596558609e+00
    8.4466391872980544e-03 -1.1118444530227596e+00
    8.8521785621025525e-03 -7.5371641414954760e-01
    1.0419219052626509e-02 -5.7785537245816754e-01
    2.6161128171771790e-02 -2.4026930873548302e-01
    3.0168834210582213e-02 -2.3777804858077298e-01
    2.8959949090604183e-02 -3.6885829894348482e-01
    1.4635907949803167e-02 -5.9410231612029962e-01
    9.6738250871112094e-03 -9.6980096498289869e-01
    1.0956434679541592e-02 -2.0510157392873452e+00
    1.7420329876543756e-02 -3.6860042729565805e+00
    1.4827474920576870e-02 -3.0265607689856449e+00
    1.2297011653418694e-02 -2.2265681231933510e+00
    1.1351449878421960e-02 -2.0102521567589626e+00
    1.2619780139825919e-02 -2.3924446349291029e+00
    9.9193367436366288e-03 -1.6135889494944691e+00
    8.6346538230697312e-03 -1.3165574802859481e+00
    8.4306820246953310e-03 -1.1215025693377603e+00
    8.8603620301855972e-03 -7.2771552358445390e-01
    9.5300741101634525e-03 -6.2735474701510208e-01
    1.3634902085406879e-02 -4.5353990094616564e-01
    2.5106761476043515e-02 -2.7121909436620689e-01
    2.3359612693429746e-02 -4.6995852379281688e-01
    1.2420573775133366e-02 -6.8476584365537896e-01
    9.2970162199768492e-03 -1.1557659111360694e+00
    1.1302759580762651e-02 -2.1866378173151744e+00
    1.6694520526782844e-02 -3.4733389285459255e+00
    1.6615169259305736e-02 -3.3597621207501387e+00
    1.3565640184929369e-02 -2.6310202148139328e+00
    1.4322398446983428e-02 -2.7689342155464143e+00
    1.2394769572291218e-02 -2.3822420939797082e+00
    9.8699580754243801e-03 -1.3843914879476829e+00
    9.2093105771874680e-03 -1.3757013550369648e+00
    8.8435396132110957e-03 -1.0769336726351144e+00
    1.0025140891740078e-02 -6.9648347247878439e-01
    9.1192163646922793e-03 -7.2257790721285409e-01
    9.7935786942444109e-03 -6.4650505669768688e-01
    2.9890595504083382e-02 -2.6193600796999383e-01
    2.0610179533143640e-02 -5.1335618231895941e-01
    9.8091088633541906e-03 -8.3984041281375943e-01
    9.2836737428155913e-03 -1.2931180294927085e+00
    1.2989393108582574e-02 -2.5843764894062775e+00
    1.7824006911089881e-02 -3.5293878948025212e+00
    1.6020805586335396e-02 -3.0388938596396193e+00
    1.3979580855591504e-02 -2.6552006532955703e+00
    1.4135014114546311e-02 -2.9330154287683596e+00
    1.1476845077717625e-02 -2.1242734172138662e+00
    9.6628222435374451e-03 -1.4719275409662236e+00
    9.3090107763048845e-03 -1.4149696379983425e+00
    1.0163871548070818e-02 -1.1065246472202361e+00
    9.6330335540540431e-03 -6.8521288675284420e-01
    9.4924399090548402e-03 -7.3941110870532434e-01
    1.0075531156774863e-02 -6.5292093351468683e-01
    1.8918910556872476e-02 -2.9398991273245256e-01
    1.5917001431053374e-02 -5.5541957625202032e-01
    1.0225884098467974e-02 -8.0232824841005967e-01
    1.0431630156514415e-02 -1.9371262684064203e+00
    1.1640640379031383e-02 -2.2987201422171450e+00
    1.3455222625278351e-02 -2.6609473165517583e+00
    1.4987470518491953e-02 -2.9326141326380770e+00
    1.2719559456075490e-02 -2.3917792656154582e+00
    1.3105260113716594e-02 -2.5387992717664396e+00
    1.0537932265109337e-02 -1.8463566584499465e+00
    1.0449642710781634e-02 -1.5788585164198092e+00
    9.3983707638035669e-03 -1.3591775403284869e+00
    9.5253423231270503e-03 -1.0439023185437526e+00
    8.6881405519242498e-03 -7.7964629689636034e-01
    9.4212770248991960e-03 -6.9395143138665394e-01
    1.2304037194877633e-02 -5.0397983931123780e-01
    3.3025565656745373e-02 -2.8245549574848017e-01
    1.4078355443134516e-02 -5.5665076456077922e-01
    9.5941925394530010e-03 -1.1050994932943627e+00
    9.7388486513938378e-03 -1.5960178941198715e+00
    1.1771595837657174e-02 -2.1912206094123161e+00
    1.1379288856016211e-02 -2.1506855937870637e+00
    1.1514564303205448e-02 -2.1370122302199057e+00
    1.1985009272832994e-02 -2.1088885395473107e+00
    1.0988670635592208e-02 -2.0110713140848953e+00
    1.1143630446940920e-02 -1.9288744543356289e+00
    9.9755267692613683e-03 -1.5191677214135668e+00
    9.2752650638233142e-03 -1.3516257971295160e+00
    8.6178755118673806e-03 -1.0082914348884835e+00
    8.9610647561853395e-03 -7.5119662581127367e-01
    1.0217584033357327e-02 -6.5795863499014151e-01
    1.4491334308419198e-02 -3.9069399997303861e-01
    2.9510179603250974e-02 -2.5044823479074840e-01
    1.0701347668785039e-02 -6.2870417554112101e-01
    8.9758531639476998e-03 -1.0989514959280704e+00
    1.0160107213062205e-02 -1.8377762349732385e+00
    1.0425907192552800e-02 -1.8452483900924699e+00
    9.4034641107665785e-03 -1.5154424793245929e+00
    9.8029491276999722e-03 -1.6416070203715467e+00
    1.0861286452511916e-02 -1.9604622046784008e+00
    1.0718720416079330e-02 -1.9694238406596285e+00
    1.0593129719898191e-02 -1.8805592918535050e+00
    9.7418430455332317e-03 -1.5211375187018796e+00
    9.0591061412732734e-03 -1.3244174781011493e+00
    8.8426316199469116e-03 -8.1200955362644078e-01
    9.3794731792907829e-03 -6.1509597796822713e-01
    1.4819697065702884e-02 -5.4774380338893947e-01
    4.2255962210340871e-02 -2.9245573845578027e-01
    4.3504958617325458e-02 -2.1466262475654008e-01
    8.8316667704348879e-03 -7.7927838634916269e-01
    8.6055091807911120e-03 -1.1163383554397313e+00
    9.7598727488942844e-03 -1.7728295170853368e+00
    9.2230013194810907e-03 -1.3103943190494316e+00
    9.0459269406355618e-03 -1.3088027978845873e+00
    9.3765582114307983e-03 -1.2729911529676707e+00
    9.4888646052134883e-03 -1.4703994533631481e+00
    9.9687098034452384e-03 -1.6805146052860578e+00
    9.7337314931724428e-03 -1.5518897960890854e+00
    9.3680468583591508e-03 -1.3984275211590074e+00
    8.7481233875174851e-03 -1.2073561343640908e+00
    9.5203814497785769e-03 -7.2279738112134717e-01
    1.1507275187819146e-02 -5.2554937074895069e-01
    2.5233104636642162e-02 -3.1873395330495363e-01
    4.4597713615984441e-02 -2.8988513850389885e-01
    7.8099290237862523e-02 -2.4971220431316568e-01
    8.8245787668477550e-03 -8.2324030864408659e-01
    8.5382902295449859e-03 -1.1985063180103410e+00
    8.6085857349004358e-03 -1.2659151864900957e+00
    8.9223127841829980e-03 -1.1074233749105029e+00
    9.0002535688875392e-03 -1.1904019588744414e+00
    9.2057680599429911e-03 -1.2357532335202419e+00
    9.4938989409338922e-03 -1.5368873509251273e+00
    9.2290805387081794e-03 -1.4677881114653391e+00
    1.0670890613547550e-02 -1.4960307827282782e+00
    9.2313884501441252e-03 -1.2411358839943771e+00
    8.4755547177979250e-03 -9.7781136533752899e-01
    1.2606387839400967e-02 -5.4854374453814470e-01
    1.3691243912492407e-02 -4.4280365180139919e-01
    2.4467644060538904e-02 -2.8137790669619739e-01
    4.4680256530238605e-02 -2.6690574295695169e-01
    5.4544861411865521e-02 -2.4545187635339485e-01
    8.7110270072946333e-03 -8.7201965094075751e-01
    8.3774729366260809e-03 -1.1383442502175991e+00
    8.6180118096776444e-03 -1.1573082701259214e+00
    8.8881118171955636e-03 -9.8412448607500880e-01
    8.9206029240484885e-03 -1.0261040889741038e+00
    9.3436964815210542e-03 -1.3143876195255473e+00
    9.0799643870875194e-03 -1.3778845957405310e+00
    9.3435428263553486e-03 -1.3982120074228865e+00
    9.5416327107738994e-03 -1.3051949165948087e+00
    9.0815387322331700e-03 -1.0903821175214168e+00
    8.7439987256348953e-03 -8.7578050394122142e-01
    1.2167187499308424e-02 -5.8066301394725861e-01
    3.2047752460599092e-02 -2.3192452438591446e-01
    5.7659956126070909e-02 -2.3898534446989914e-01
    6.3404814119724387e-02 -1.9438581170915503e-01
    7.1532651351353699e-02 -2.0518576308677769e-01
    1.0055828066235499e-02 -7.2970910243801013e-01
    8.4780042168100447e-03 -8.8751317827553577e-01
    8.8952409979777356e-03 -9.8058327738233519e-01
    8.7762654869449324e-03 -9.3548061460185383e-01
    8.6484199679529080e-03 -1.0004856362926575e+00
    8.7147072940295944e-03 -1.1733894702605900e+00
    8.9987744156410712e-03 -1.2078486554467707e+00
    9.0373426076723676e-03 -1.1534503065055521e+00
    9.2237267950417597e-03 -9.8681740224321779e-01
    8.8526956745118533e-03 -8.5125657880700822e-01
    8.8407128122207929e-03 -7.5378709241040442e-01
    1.2389060058583045e-02 -4.9360623496565081e-01
    7.3942451667039596e-02 -2.1501686603178619e-01
    2.7168568557076129e-02 -2.9170463082334369e-01
    5.3819557850108592e-02 -2.3652279370968773e-01
    4.7367528406065312e-02 -2.3870741288846073e-01</input_scale>
  <output_scale>
    1. 0. 5.2631578947368418e-01 4.9999999999999994e-01 1. 0. 1. 0. 1.
    0. 1. 0. 1. 0. 5.2631578947368418e-01 4.9999999999999994e-01
    5.2631578947368418e-01 4.9999999999999994e-01 1. 0. 1. 0. 1. 0. 1.
    0. 1. 0. 1. 0. 1. 0. 1. 0. 1. 0. 1. 0. 1. 0. 1. 0. 1. 0. 1. 0. 1. 0.
    1. 0. 1. 0.</output_scale>
  <inv_output_scale>
    1. 0. 1.8999999999999999e+00 -9.4999999999999996e-01 1. 0. 1. 0. 1.
    0. 1. 0. 1. 0. 1.8999999999999999e+00 -9.4999999999999996e-01
    1.8999999999999999e+00 -9.4999999999999996e-01 1. 0. 1. 0. 1. 0. 1.
    0. 1. 0. 1. 0. 1. 0. 1. 0. 1. 0. 1. 0. 1. 0. 1. 0. 1. 0. 1. 0. 1. 0.
    1. 0. 1. 0.</inv_output_scale>
  <weights>
    <_>
      -2.5149866521740474e-02 2.8045383616910086e-02
      -2.2165774657172496e-02 -7.7037039598998039e-03
      2.0622883942346963e-03 -1.0004568736000643e-02
      -1.5669256200542624e-02 2.1578292553341562e-02
      3.5761467348526242e-03 2.1631626023762479e-02
      2.0337339562772269e-02 -2.3879441380904125e-02
      -1.2751989639498080e-02 2.5982408785417618e-02
      2.7186061641707370e-03 -1.7494250621447365e-02
      -7.7944127766954741e-03 3.8688049622986512e-02
      7.0363787209663960e-04 -1.4300271214783378e-02
      -7.2879036563402947e-03 4.9043629296007162e-02
      1.2036056742089546e-02 -2.5758515522289117e-02
      -5.4659588082590135e-03 1.4391951055568925e-02
      -2.6390295942697820e-03 -4.5104189677214242e-03
      -1.8592461137630648e-02 3.0752948139566399e-02
      -2.2595244265044917e-02 -1.0818924915247809e-02
      -2.8149486317600252e-03 -1.5339585151486316e-03
      -1.3398762927390149e-02 1.0035373002103195e-02
      -2.1015672495035841e-02 4.8517024642633834e-02
      -7.3442696379398664e-03 -2.1075837811136255e-02
      -1.4879861174838405e-02 5.0937162215520172e-02
      2.0924309804002027e-02 -3.4832237059115805e-02
      1.3101501928850968e-02 -4.2350489824137000e-02
      -8.4876419374397619e-03 3.0265756012844251e-02
      9.6081804063288746e-05 6.2582217290455110e-03
      1.2727342031273577e-02 -1.2345043938431442e-02
      -1.5317213631145226e-02 3.7947210480640925e-02
      1.1467682148660603e-02 -1.9958784542938101e-02
      -1.5458140492942021e-02 4.2540417495119838e-02
      5.6491759191231667e-03 -2.5023216771128731e-02
      2.2294764977149915e-02 -4.5030694659001787e-02
      1.7824139499825733e-03 2.1471377047374285e-02
      -1.0807838546115674e-02 4.0673225376206761e-02
      4.3680930800633691e-03 -2.3185300572330095e-02
      -1.7945713892870398e-02 4.9814013522839568e-02
      4.7894903371836607e-03 -2.6246677968997871e-02
      -9.0936083920861461e-03 7.6091599208472473e-03
      -7.2556139107139749e-03 4.3128514040498573e-03
      -1.8877445534692044e-02 4.6745114512395637e-02
      1.7227336024961955e-02 -3.4172940302559379e-02
      1.0267564195150874e-02 -1.5722246117872481e-02
      -1.1411037125896041e-02 1.9434442630109166e-02
      -8.2760758168392793e-03 1.1114518193623952e-02
      7.9779381394362164e-03 -1.6142703055914118e-02
      2.2859804419881929e-02 -5.3613014365468413e-02
      -1.6841620138490311e-02 4.1174873819704874e-02
      1.3105459743127892e-02 -4.2111129560570344e-02
      -2.3321146847738620e-02 3.7555397265101077e-02
      1.5076988344363777e-02 -5.4263180867580661e-02
      -2.9833001668765968e-02 4.6976089365946987e-02
      -1.0309794187382064e-02 1.1887815570912881e-02
      -9.8339582341434480e-03 -7.8647409035101923e-03
      -1.3808622439551369e-02 3.2050069773473362e-02
      -3.8881838227896098e-03 -1.2583430159499235e-02
      2.7468716564830246e-02 -5.0657594036118206e-02
      6.5739747943435864e-03 3.1317260747094865e-02
      9.0010690084984333e-03 -9.2422958844888964e-03
      4.2276122947225063e-03 -2.2698042838534293e-03
      3.3894704574928922e-02 -4.2909215522509842e-02
      2.4358678096936232e-02 5.5014694089966744e-03
      3.3581885462899620e-02 -3.9326313836245574e-02
      2.8953088949914961e-02 1.0147768995044099e-02
      1.6670779701957388e-02 -3.4440048768759411e-02
      1.0407462883562426e-02 1.2722194519010648e-02
      -2.8922284253522640e-02 5.8106829210082103e-02
      7.1934793152428718e-03 -3.9297000434963252e-02
      -7.0222050670815453e-03 3.1308576994884395e-02
      1.8024936350963982e-02 -3.3594103027345099e-02
      -2.3579708399566860e-02 4.6525848150569829e-02
      -1.5062978112356099e-03 -2.0320218994574889e-02
      -5.8713846597399514e-03 5.5136346470395254e-04
      -1.3961808082184818e-03 1.8391035621534372e-03
      -6.2594328196282668e-03 1.0537752390689098e-02
      -2.4701970021995956e-04 -9.4744486793646165e-03
      1.6676218280704824e-02 -2.9745703311997870e-02
      1.7436526877011731e-02 6.7994535970870556e-03
      1.2839843380776688e-02 -3.3725602847001553e-02
      -9.4867856504266806e-03 2.2967948343619381e-02
      1.5778163457074244e-02 -6.0140335629322111e-02
      -2.2995591268616701e-02 5.2641261412831118e-02
      2.3034839486685922e-02 -8.0400234235800394e-02
      -2.3375929559589764e-02 5.6016355041539005e-02
      1.2018689618124181e-02 -2.4309283301114565e-02
      1.2816702325254928e-02 7.0321051662848039e-03
      2.1195400272845631e-02 -3.6906015796361255e-02
      9.3688730268836444e-03 2.1193218965612735e-02
      1.2790350032007430e-02 -4.3431543104428504e-02
      4.7979409793908277e-03 1.0934818944298251e-02
      1.1439745039289415e-02 -1.7099929008342996e-02
      2.4458448420855736e-02 -8.3573037247305724e-03
      2.3638476225315862e-02 -2.6979055526122696e-02
      2.9460245516386242e-02 8.9167875457860663e-03
      4.7545973451818269e-02 -6.1245172366952989e-02
      4.0785625579328064e-02 8.3965771221086900e-03
      2.9851252684396843e-02 -4.1535331342564749e-02
      1.5933352571419632e-02 1.8286196432057443e-02
      -1.9481263168432982e-02 2.9174161992648974e-02
      -9.8860213823195632e-03 -5.7594033023224238e-03
      -3.5498151277412016e-02 8.8588679578034873e-02
      4.7054658402491773e-03 -5.1408503307629146e-02
      -2.7688285154192694e-03 -5.5576802295056625e-03
      -7.5229356257974014e-03 3.7840271787739454e-03
      3.4850020364466491e-03 -9.2297362504103926e-03
      8.2975709668221213e-03 -2.6147592120220157e-03
      6.3934429369462663e-03 -2.2005142409243280e-02
      -3.7535531935723393e-03 1.1226958929012536e-02
      1.1583079800579314e-02 -1.2021116313943200e-02
      9.0817327504720043e-03 -2.8451881014378323e-03
      8.7063154505033925e-03 -3.5337361282422881e-02
      -1.9959218280359882e-02 3.8488954584352947e-02
      1.0905516750351512e-02 -1.8888776331049198e-02
      -1.2606107079317284e-02 1.8689149046442814e-02
      3.8701998173685179e-02 -1.1458995236340548e-01
      -1.6938414129705950e-02 7.1802159494934639e-02
      1.8329554173749985e-02 -6.7091529293130017e-02
      -1.0358853267549310e-02 3.6150561629533888e-02
      2.7459704403173274e-02 -4.3280325807282971e-02
      1.2672344681065055e-02 1.9743578807139769e-02
      4.5694101999999126e-02 -9.4312995799979288e-02
      1.6492688845328413e-02 3.9666642510336733e-02
      1.8915917485066300e-02 -2.3522558112374754e-02
      4.0684964775894429e-02 -9.4015537228291368e-03
      1.5198163927740786e-02 -2.0846197212465993e-02
      2.7187041422148402e-02 -1.1509873254546900e-02
      1.4039582149813608e-02 -8.6196513415990970e-03
      3.0855110051807320e-02 -1.9040490736138633e-02
      2.5240682658624401e-03 -9.8495457641530858e-03
      -5.7045802138149481e-04 -1.7088245635057547e-03
      -1.0926076467570472e-02 2.8384931507011050e-02
      4.8208842317460678e-03 -1.4487649544484621e-02
      -1.1820407242068567e-03 -2.5067985380532247e-04
      7.9716888195489524e-03 -3.4764143618713759e-03
      1.3418726027102216e-03 1.7516176303841786e-02
      1.2183327753015052e-02 -2.3851492276573301e-02
      3.8517384797488430e-03 -1.9138594196419167e-02
      -1.2629574562531115e-02 2.5122230250889468e-02
      1.1674758421002962e-02 -7.1344674450647648e-03
      1.4316862234418387e-02 -4.4299257868793259e-03
      3.3068190894863974e-03 -2.7902933935035453e-02
      -4.0702699803616113e-02 4.4296745141061619e-02
      2.0217484223405600e-02 -7.2443741560623290e-02
      -3.0440990587358198e-02 6.3396554991506801e-02
      -1.2898169645991678e-02 -1.8221541338181144e-03
      -2.1181484681049155e-02 1.2180711248205451e-02
      1.1325476073444942e-02 -4.1027849740315751e-02
      -2.3471099099043095e-02 4.2116569951568844e-02
      2.4173009567518545e-02 -5.2760868791578236e-02
      -1.7009333415780897e-02 3.5811915046327657e-02
      1.7523411257671709e-03 -2.1218394143499981e-02
      -1.8956247684237315e-02 2.9155408275090239e-02
      -3.1455942940889058e-03 -1.1034623501335737e-02
      -8.5820986664630096e-03 1.6667282967755645e-02
      7.1745222587092459e-03 6.0628074000961723e-03
      2.5269766530926902e-02 -2.5686228059792444e-02
      1.7430731544284706e-02 -4.3863929451025095e-03
      3.7484917798882675e-02 -2.2215628345156859e-02
      8.7647240642234753e-03 2.4274317529989164e-02
      2.9959059280372353e-02 -3.3998255207944618e-02
      1.2322096586150385e-02 -1.4360331472809162e-03
      8.5934570073500308e-03 -1.3001604694715763e-03
      -3.9549466742969566e-02 6.9517461926726518e-02
      -9.4535198126036049e-04 -2.7376165128569899e-02
      -3.5569501872020404e-02 7.4751515122833942e-02
      7.5422267951144654e-05 -3.1017058710157485e-02
      -1.3239670710759639e-02 1.4832109202498108e-02
      -1.2427061374154091e-02 8.3997378794419646e-03
      -8.2066696170438012e-03 2.1381632040976808e-03
      -1.7195982793938202e-02 1.7726873495575973e-02
      7.9492733111761853e-03 -3.1373506703500004e-02
      4.2823251046583367e-03 1.7253855376966980e-02
      4.7598577512961860e-03 8.0991993987747177e-03
      1.8000238149141232e-02 -1.6468578016899441e-02
      2.9694426518150935e-02 -6.6052115702993880e-02
      -1.0996133156031589e-02 4.7266583589043842e-02
      2.8029090099795672e-03 -9.3560169648302296e-03
      3.0360042955205036e-03 -2.9392351035921376e-03
      -2.0409708694017564e-02 7.5008373239184911e-02
      6.7127783908077724e-03 -4.3515360151497075e-02
      -1.7963118627129963e-02 2.1689958961671252e-02
      -1.1841658771043486e-02 -2.9990566112414350e-03
      7.4979780532485815e-03 -2.1791653976442817e-02
      -1.2372523989371170e-02 1.9393867625518372e-02
      1.2009500376616187e-02 -3.1429791192195832e-03
      2.8674344569307741e-02 -1.5736100110514739e-02
      4.0853360437153692e-03 4.0476052228806620e-03
      1.6588213226549329e-02 -1.3114995004985202e-02
      1.1240884754136657e-02 9.0287614786165229e-03
      1.7062410651820393e-02 -1.9219086212226871e-02
      1.8615632278656896e-02 -2.7145991818960047e-02
      2.0274761379532148e-02 2.0598569980349321e-03
      2.1018575851436152e-02 -2.5705585324681032e-02
      2.4639014095010642e-02 -1.8012136713125399e-03
      -1.1810343259810271e-02 2.9768716165104483e-02
      6.9305592747108732e-03 -2.1639644065044140e-02
      -1.7300417264255991e-02 2.6708827617686684e-02
      -2.1196751259486838e-02 -6.7991619461183761e-03
      -6.1668568810905999e-03 1.3076511170129819e-02
      -1.7220519777651894e-03 3.7386710468004209e-04
      -3.6886472326340377e-03 -4.2917293424412847e-03
      -7.1541816404114130e-03 5.7611240213005233e-03
      2.7171612698796376e-02 -7.0820399742023810e-02
      -1.4837000166453387e-02 3.4130131543282989e-02
      -6.1945430825106418e-03 3.2074654801973836e-02
      8.8827796825913935e-03 -2.9580201903953156e-02
      4.1621898370368575e-03 5.6463281406581318e-03
      1.1023261166685545e-02 -1.8779211020159520e-02
      -1.4621837925535510e-02 2.1894243438400376e-02
      8.0998306492334436e-03 -1.9955750972126957e-02
      -1.7273100080469339e-02 2.3445000389254528e-02
      2.8713637289478548e-03 -1.3633809612288723e-02
      1.0248101598045327e-04 -8.8532414646535912e-03
      -5.6175358551188437e-03 9.0607330866144080e-03
      -7.1508305569005434e-03 -1.0819922897684140e-02
      -2.1150106877328396e-02 2.5839806974700286e-02
      -5.5987096423383061e-03 2.6702171933999142e-02
      1.1309287060346789e-03 -2.5432392368287121e-02
      1.7929539060239630e-03 2.4826307121830194e-02
      2.3169096453007066e-02 -2.4394645422412365e-02
      -9.0285635864581267e-03 4.0581525727727191e-02
      7.8806756061028087e-03 -2.9564407306712476e-02
      -1.2956027538278082e-02 4.2851736657016665e-02
      -1.5947944252814754e-02 -5.5540026786895080e-03
      -2.0713957873053430e-02 5.2120333502767242e-02
      -4.4907015216935084e-03 -3.1129410755583183e-02
      -9.2948537366085923e-03 2.5114734445932738e-02
      3.7853738455297242e-03 -1.8488876311293527e-02
      -1.2586574900273401e-02 3.5726327257099913e-02
      -1.3488826597439356e-02 -9.2848038870372972e-03
      -1.2624655180873839e-02 7.4268182760325709e-03
      -1.9213572053588854e-02 1.6647771531322171e-03
      6.1404464713643494e-04 -1.9544325441154482e-02
      -2.0791326790377703e-02 3.1246673522585179e-02
      -2.4337489226516195e-03 -5.4093492656190267e-03
      -6.9534097460393490e-03 -1.3474987874223963e-03
      1.1009228046566613e-02 -5.3862255263636735e-02
      -1.7340948692084159e-02 3.4392413020968189e-02
      -2.6696438431939168e-03 -1.3987435564109967e-03
      -1.6953158230394189e-02 1.2488810157377123e-02
      -7.4377674090738352e-03 3.7635009547646793e-02
      6.2665799993540851e-03 -1.4745068988790940e-02
      -1.5277909226837237e-02 1.4895433657180678e-02
      -1.4895918845937217e-02 1.2219674269750354e-02
      1.4874877587954079e-02 -2.1286393826908018e-02
      -3.2796325390630572e-04 1.6999571603690301e-02
      -1.9290086325246746e-03 -1.6928684872112434e-02
      -2.4872810199960255e-02 2.9553115140468194e-02
      -1.4428326258716194e-02 2.2928257120499129e-02
      -3.3275215672768120e-05 -7.5481909186791117e-03
      -8.3435576554255694e-03 4.3679031296276448e-02
      3.3109585168339936e-02 -5.0780440352336045e-02
      2.2995471457315014e-03 1.2670765212343341e-02
      2.4156123105675595e-02 -2.7265691985087048e-02
      -7.5756535278355636e-04 7.2141039844050379e-03
      1.3530072127623829e-02 -3.4814654084487631e-03
      -2.6441715005637221e-02 4.5157953469583824e-02
      -2.3209774612903591e-02 -1.2537688261732481e-02
      -2.4368367444530390e-02 5.3255571234756216e-02
      1.6511844527122219e-02 -4.2346612405731489e-02
      1.7385353257176530e-03 -3.5436898135658723e-04
      1.5511971963576374e-03 -4.7775401009508963e-03
      -2.8688067262959559e-03 7.9365057818131142e-03
      1.1266587907144924e-03 -3.8353756257754825e-03
      -1.0451663465050175e-02 1.9022402158157276e-02
      -1.4270656932407649e-02 2.5319496873331903e-04
      1.8663126409025474e-03 -1.7572976205050994e-02
      -9.2950863863189188e-03 1.6897487331469094e-02
      -1.2910981072985286e-03 -1.1635741732240971e-03
      -1.7423745067633081e-02 3.1802563792746193e-03
      -4.3175080001115603e-03 -1.9068498934420929e-02
      -1.4963319832296601e-02 1.2582992253629856e-02
      -2.7825618115450163e-02 5.2557537174979393e-02
      -1.7473340934160454e-02 -1.7687138973568290e-02
      -1.9283840216910049e-02 4.0592339461584831e-02
      -5.1651662506394221e-03 -2.4755819174570728e-02
      -1.1041783380037655e-02 1.9608035893821124e-02
      -3.4752844608736734e-03 -1.2286152351470142e-03
      -4.6488581537151869e-03 -9.3722440556603323e-03
      -2.2757832014474209e-02 1.5661481929281445e-02
      7.1172680190041858e-03 1.9096535233533228e-03
      5.5987018937217661e-03 5.1302243045239435e-03
      -8.7204053429576350e-03 4.5396144911780595e-02
      3.0734915663689300e-02 -4.8595424468814152e-02
      7.3004758578118240e-03 1.0004711514058394e-02
      1.6852125518087863e-02 -8.9314946290107340e-03
      -5.4569859662761582e-03 8.6453128544012291e-03
      9.1512760197033916e-03 -1.1960320441237692e-02
      2.1324780219894774e-02 -5.2840781048092686e-02
      3.2817756505719910e-03 2.1046662194781733e-02
      -1.7038071038354058e-02 5.4474682322307788e-02
      1.1577242809672789e-02 -3.4377514197997547e-02
      -3.3952184792840091e-04 1.1731410059749989e-02
      7.1578342593131769e-03 -5.2169113259460621e-03
      1.1391136234000841e-02 -2.2259814754611484e-02
      -3.2691473816838048e-03 7.2848517133094750e-03
      -7.9051520485732326e-03 1.0051643286731264e-02
      -3.4757583201873244e-03 5.0111369785798236e-05
      -8.1430120602511823e-03 3.0543548931960023e-02
      1.5591170183264337e-02 -2.2970059241564440e-02
      5.7846664116403710e-03 -1.2014720741896514e-02
      -5.8903589333068954e-03 1.4933280228542534e-02
      -3.0087812306017665e-02 6.0143805937008861e-02
      -1.4727442542290269e-02 -2.2093630940110274e-02
      -2.5874822634138980e-02 2.3648871715030613e-02
      -2.1880039522427699e-02 3.5979653437998795e-03
      -1.6391793141418348e-02 3.8119357340735252e-02
      -1.4147123108444171e-02 -9.0394534839687238e-03
      -1.2395606912052645e-02 5.4564283455363263e-03
      -1.5671679665935651e-02 1.0356539324247004e-02
      -1.5913158465640129e-03 -3.0874231052383256e-02
      -2.3037722940338998e-02 3.6545352020733321e-02
      -3.1092577776773802e-03 1.3209939730852925e-02
      1.2397794704868742e-03 -7.9965939553477867e-03
      1.5605780146910062e-02 4.0207066611645526e-03
      2.6892376790539439e-02 -1.8127413320218742e-02
      -8.1960483621992888e-03 2.7166447950633436e-02
      2.7877174652771612e-02 -3.2101452885816367e-02
      3.6639824858724413e-03 1.4563103936242074e-02
      1.7325004122137409e-02 -2.1940985053744463e-02
      -2.7528838739626596e-02 6.0003131049555770e-02
      4.6303105159304862e-03 -3.1464943816679962e-02
      -4.7489776812416774e-03 5.0330152029103570e-03
      1.7684913617903419e-02 -1.6399826026479596e-02
      -9.8381488656813353e-03 2.0620465327883707e-02
      1.3068243209796467e-02 -2.1169476977847719e-02
      4.9607888981018447e-04 -5.5496447952974853e-03
      -4.0647391809610772e-03 5.0943271378205328e-03
      -9.8063903387979809e-03 2.0018450543804606e-02
      1.1056054448236621e-02 -1.6098393828498824e-02
      -2.1757053131270247e-02 2.5397298120908251e-02
      -1.3025600995139107e-02 -1.2378622607745948e-02
      -1.0297529174716335e-02 3.9865435060622866e-02
      9.7664767852061705e-03 -2.9956222424098167e-02
      4.6956096458487839e-04 1.6989253184213283e-02
      -1.7915346097326129e-03 -1.7226943211957356e-02
      -1.0264227975457370e-02 -3.5063582826024009e-03
      -1.8485705442406453e-02 6.0399770452520575e-03
      -2.5426561083364198e-02 3.3379116120893108e-02
      -9.6103033079896760e-03 -9.5075427590080464e-03
      -9.9460845805475918e-03 4.3359614498377809e-03
      -3.1625603255660002e-02 2.3032485361846364e-02
      -4.1853088774989403e-03 -1.0459595523091674e-02
      -1.0843904380070636e-02 1.2762900651954529e-02
      1.2432351301472210e-03 -8.2194611337217790e-04
      2.5818917450076665e-03 -5.9712183910433682e-03
      -7.6644341566542186e-03 6.0243927920473679e-02
      2.5362695414861452e-02 -5.0411085870873937e-02
      5.1606225133667997e-03 -1.2723889442026282e-02
      1.3394472592706473e-02 -5.9557084943158284e-03
      1.8703071637030205e-02 -4.4452244286276907e-02
      8.5742886701493572e-03 2.4324434938243791e-02
      -3.0012226342608656e-02 5.7481879900395869e-02
      -5.8458410997626964e-03 -1.9771083469538119e-02
      -6.9112363333573605e-04 5.5585616450439315e-02
      4.7823486576289112e-02 -6.2207658010525926e-02
      -1.0014447222616572e-02 2.5773606385039737e-02
      1.4720501082346248e-02 -1.7100930010738584e-02
      4.4590653694973510e-03 -4.1768128746988077e-02
      -2.6838037269759557e-02 3.1479953332728274e-02
      -9.1863074099115868e-03 2.4509474220679270e-02
      -2.8828812204798435e-03 -1.3473466153674948e-02
      2.1276700399176129e-04 1.2934124284289519e-02
      1.5176091502046459e-02 -1.6647114713025601e-02
      3.6665299585523867e-03 -2.3852916675833915e-02
      -1.2702740911412004e-02 2.2770770696788328e-02
      -1.2409475511992474e-02 9.8502986885078223e-03
      -1.9333792575918003e-02 -1.7580230784482935e-04
      -8.5797961013999412e-03 1.0364669357277334e-02
      -1.5758004610254710e-02 1.0994520283681267e-02
      -1.8882821391017397e-02 2.3741323603432701e-02
      -2.5624790875843132e-02 2.9338545337618096e-04
      1.6540338194022692e-03 -4.4721371327144845e-03
      4.7133109464248726e-03 -7.9939693798594547e-03
      -1.0703431417514427e-02 -1.6295021050683169e-02
      -5.0841598275575640e-02 4.9547833853396415e-02
      3.5149748414201754e-03 1.0500535617843705e-02
      8.6200517840606394e-03 -1.5455108441917760e-02
      1.2767353385915350e-03 2.9397433438158926e-02
      3.4997142024505490e-02 -3.0809148082434751e-02
      3.0599994731725640e-02 -5.5807167294373745e-02
      2.2188083126002775e-02 2.0777795255920082e-02
      -1.0851448486333780e-02 3.8779856040358253e-02
      -5.4770660044750022e-04 -1.7269079763417270e-02
      2.4988628910066712e-02 -7.6858926304650341e-02
      -1.5525314861548425e-02 5.0778025137237469e-02
      9.1962729475897356e-05 2.9548765706582540e-02
      2.5390327029732936e-02 -3.2052239521110339e-02
      -5.1376118114502076e-03 1.8625821428448419e-03
      7.8214393663981092e-03 -8.2938880232592705e-03
      8.1180166803593128e-03 -2.2064369187122009e-02
      -1.1081709921346506e-02 1.5306562238362992e-02
      9.6203102907573296e-03 -1.5894361182478729e-02
      9.5343027814923671e-03 -1.6743613622882568e-03
      9.4842835628244351e-04 3.4651516775349488e-03
      6.8048165724987454e-03 -6.5641656097537755e-03
      -6.3463420849090447e-03 1.4291871078310819e-02
      -2.3694426724260808e-03 -1.2245850362836238e-02
      -8.1873247308766311e-03 2.8409110687294088e-02
      1.8885065389978136e-02 -2.5277465749506952e-02
      -1.5569387418119843e-02 3.0384856664780070e-02
      6.0736428243439583e-03 -1.8151877058631173e-02
      -2.1992823390024546e-02 3.9628073106397960e-02
      -1.9123145929189594e-02 -1.5314843587672846e-03
      -1.5448628871015968e-02 2.8854609263225740e-02
      -1.0740298425287221e-02 -1.4344858647880173e-02
      -1.6311777220016015e-02 2.3789719341168195e-02
      -1.8592506495096691e-02 -3.1004880396211963e-03
      -1.5338163901487451e-02 2.2328177798297370e-02
      6.0723922947292413e-03 -1.2578564434273050e-02
      -1.6688525622549015e-02 5.2592858376096160e-02
      2.1200541693396933e-02 -4.3888546601583749e-02
      -5.3851687003727850e-03 3.8109010619482776e-02
      2.3078260816962654e-02 -2.6418557190030726e-02
      -1.2885352905645287e-02 4.5435383772425959e-02
      7.0137480564878224e-03 -2.8070120178798480e-02
      1.8574254939241794e-02 -3.9844676181921154e-02
      -5.2652472600200279e-03 3.3140952691755821e-02
      -6.5755762704220438e-03 1.6373076816217667e-02
      1.1282091712614928e-02 -5.5987830943309714e-03
      6.4063120112367294e-03 -3.8702301691042759e-02
      -2.6297217565514158e-02 4.5490452771211047e-02
      1.0539558280728592e-02 -4.2200471041576940e-02
      -1.2334925782603715e-02 2.8128132030564367e-02
      5.4811525775824614e-03 7.8805282423544329e-03
      3.5542994899639916e-03 -3.6288503175674635e-03
      -4.0607677516663423e-04 -3.2677555072724886e-02
      -7.2061571369996013e-03 2.1358867368149861e-02
      4.2956861420357243e-03 1.3295887156497804e-03
      -7.6129119467378062e-03 4.6331448366870578e-03
      -1.6373259594069444e-02 3.5968044256890763e-02
      3.1940628017526024e-03 -1.4197511053083783e-02
      -1.1052867337486871e-02 3.1900371177372343e-02
      1.1399892618557093e-02 -2.8230080791482436e-02
      -1.8025718776924632e-02 4.5951640108657835e-02
      5.0223441712655458e-03 -3.1552584714317641e-02
      6.0869863887072842e-04 -3.1356068206633309e-02
      -3.5029089173967014e-02 4.3431585193120972e-02
      -1.4291265019297596e-02 2.2466401833864544e-02
      -4.5517661711341577e-03 -1.6071841638523810e-02
      -8.3911228205718561e-03 4.3175389669157564e-02
      4.1477915696020440e-03 -2.5539596558767943e-02
      -3.0915432986095386e-02 7.1581753035915449e-02
      5.4103007054865579e-03 -4.1924919070132537e-02
      1.7765699876299123e-02 -3.4022637853777023e-02
      9.0384568726521175e-03 8.4215116547594129e-03
      -3.1184891040607520e-02 5.4474925467550853e-02
      -1.0714105614647968e-02 -2.1400185172457280e-02
      -1.8752276470189625e-02 2.7338573430748258e-02
      -9.3487488675190978e-04 -1.6168187788392387e-02
      -7.0293254387675278e-03 7.4847754110604530e-03
      -1.0149751610929996e-02 7.6079168350501689e-03
      1.1143246261159544e-02 -3.4988554694340666e-02
      2.1114291770215547e-03 1.9529385872322932e-02
      2.0214596045382657e-02 -5.9761678627656759e-02
      -1.9276855950558162e-02 4.6528832116390598e-02
      -1.0093951085130093e-02 1.6609456332403818e-02
      2.8672216492231172e-03 -2.3780573429705427e-02
      5.0164720891564714e-03 -2.2398151007630443e-02
      -1.0746891761460530e-02 1.7541072551378951e-02
      8.0007166122952576e-03 -2.2810168818220363e-03
      4.7273039087571012e-03 8.6295873867291741e-03
      -1.6310402095162428e-02 3.4044542155975910e-02
      1.6382178141206600e-03 -8.2362424231141804e-03
      -1.2026670395975358e-02 2.2281606569082162e-02
      -8.1784989841204650e-03 -1.4531427409125122e-02
      -1.0614114541918461e-02 6.3746110573894591e-03
      -3.3814061759961822e-02 1.2104871308898004e-02
      -1.7418965603416717e-02 -1.0722127865121866e-02
      -4.3592057569792682e-02 3.4015220936345257e-02
      -3.1359510457316729e-03 1.6958182879016920e-03
      -2.6405064418170612e-02 2.2247969807189003e-02
      -1.5178445640456587e-03 2.3624004821468761e-04
      2.7468012068890646e-03 -5.0156684274442788e-03
      -1.6725383889960015e-02 5.2999161170298174e-02
      1.0571476060555357e-02 -4.0933653844507215e-02
      -2.4072553126726830e-02 5.6724178107247024e-02
      1.0482227945047889e-03 -2.5200842042621008e-02
      -1.8476801017226090e-02 5.5699153879494388e-02
      8.6182230072961562e-03 -3.1758622628148270e-02
      -2.3597788137947148e-02 5.7626273477485709e-02
      7.2259279861663457e-03 -3.4565708909814627e-02
      8.8631918671132140e-03 -3.5534917926628045e-03
      1.1687651956383840e-02 -7.7125696305387365e-03
      4.8661949976632826e-03 -3.0438601931782987e-02
      -7.4677197327062727e-03 1.9428694967287923e-02
      2.0362806024595923e-02 -5.7814457536021734e-02
      -1.6010648508459447e-02 3.9789883390188581e-02
      1.0171201960246167e-02 -3.5928687517305796e-02
      -8.0710155382554046e-03 2.1097144762582634e-02
      1.0260231167327334e-02 -3.3984941340575898e-02
      -6.3303800969808886e-03 1.9915158921256202e-02
      -1.6364605091643389e-03 1.2165736330968353e-02
      9.5739202761083234e-03 -5.7263916121538293e-03
      -1.0291730355000469e-02 1.3666156326588394e-02
      4.4498319167602792e-03 -6.5233204575839135e-03
      -5.1067234592257465e-03 1.7393264639439413e-02
      9.3018544041034833e-03 -1.6072527859554230e-02
      -1.9724580786130635e-02 5.2184622546808203e-02
      -6.4777154140538539e-03 -1.4641039722586471e-02
      -1.3873964983981545e-02 -5.0444887903787908e-03
      -3.9130371943133041e-02 2.5521196966292438e-02
      2.1605154000969755e-03 -2.8870204159176391e-02
      -4.0272724800636095e-02 3.5847127826328200e-02
      6.4829606750611861e-03 -2.8853327397942288e-02
      -2.2197885078637059e-02 3.6411852248569153e-02
      2.6818340999485127e-03 1.7452250990878701e-02
      1.5302167040770481e-02 -1.9083920615412572e-02
      1.7787620641391534e-02 -4.8825641954338826e-02
      6.3775910006499022e-03 1.6340309319716226e-02
      -1.5477820843593485e-02 4.8035291146363575e-02
      -3.1986453388180283e-03 -2.1226294344398846e-02
      -1.0833909509344666e-02 4.3820213728430646e-02
      1.2122626523125297e-02 -3.4722934231074684e-02
      -3.6637192567114485e-01 1.8679613641690546e-02
      -7.2235263956168971e-01 1.6543160748007715e-01</_>
    <_>
      -7.7355233747457075e-01 -9.8796561803889515e-01
      3.6659555708452279e-01 2.3458993096354022e-01
      3.8797854453434255e-01 5.3235693315133659e-01
      5.5908982702156607e-01 1.1623954752604158e+00
      -6.7052982052880072e-02 4.7978895011356715e-01
      6.3359648720873141e-01 -7.6111049002658901e-02
      -1.6442522520918851e-02 6.1993107143334680e-01
      -6.5371190443870109e-01 -9.7893879259953243e-01
      6.5737589162881610e-02 -7.3432127279908299e-01
      -4.4612615114825865e-01 4.1943237867390104e-01
      3.2567738873665053e-01 4.1039267855383721e-01
      -9.1109623205753942e-01 -4.6786010236921027e-01
      -8.1972884056236739e-01 -6.1167215217153548e-01
      -4.5365535062378848e-01 -1.3338086139770736e-01
      5.9645254421315397e-01 -7.4267242116881876e-02
      1.9746958309483090e-01 2.1914177502509360e-01
      -4.3459230394971841e-02 -1.2338109568051767e+00
      1.3091226133999465e+00 6.1855110321452089e-01
      8.0682761297265260e-01 -3.0735141825440832e-01
      -2.4279185622718430e-01 1.6944952886497369e-01
      -4.0118523167324333e-01 -9.0757161819692622e-02
      -4.5284899222307157e-01 -3.8506562677941752e-01
      4.0799998218609655e-02 2.7438419819613263e-01
      2.6661287320976634e-01 4.2935822433684862e-01
      -7.9407636083028976e-01 -1.7591028172256110e-01
      -2.5750563134788174e-01 -7.1713580316007441e-01
      1.3821289924002569e-01 -1.4283147614774008e+00
      2.0702284852957276e-01 -3.2075750610648746e-01
      -2.7430425489790555e-01 -1.5978848164750464e-01
      -5.2167768160067696e-01 1.4915016671656993e+00
      -1.6776451834134903e-01 2.2044686390850832e-01
      4.9223402722420406e-01 -3.6013254890085983e-01
      -1.6129542602695277e-01 -3.4246286211873284e-01
      -7.2866745375021288e-02 7.1768808869145617e-01
      -1.9402741246173319e-01 5.9266309394844163e-01
      2.9152737481172003e-01 -3.9153295190127974e-01
      -1.6440825035524043e-01 -5.7159899989059709e-02
      -4.1755426924491780e-02 1.3393831390710717e-01
      6.7906293109214144e-01 -1.5811980002033779e-01
      -2.1380428242732952e-01 1.5100877103291630e+00
      7.1811239658406123e-01 -3.1722075420833479e-01
      -1.1021476504860515e-03 -3.6212710974191276e-03
      -4.9744605409487780e-01 -5.2348765939985731e-01
      -1.1798849444549140e+00 6.9887390692304896e-01
      9.7257454081045547e-01 -5.0437822866698578e-01
      -3.8135641989853925e-01 -1.7374467833365026e-01
      -2.6674959136460846e-01 5.7609490583131606e-01
      -7.2007058042960537e-01 9.1443614490967148e-03
      3.6579157807572488e-01 5.2154149529149076e-02
      1.5908662746544064e-01 3.7997940203056041e-01
      -6.7659371768273491e-01 2.3783809255678325e-02
      2.5380660396928229e-01 -7.5195859907901308e-01
      -9.9949024541196640e-02 -1.6169524310104293e+00
      8.2976930942265950e-02 -4.4277940160792673e-02
      -3.0429452747864696e-02 6.1093935513744022e-02
      -2.8836087315696476e-02 -2.3203502159202649e-01
      -3.4541581719018982e-03 1.2118819959146321e-01
      2.4834825767078308e-01 -1.1402441647519612e-01
      -2.2866951354485035e-02 2.2608151633646264e-02
      -1.6155463062218237e-01 2.2726274998005809e-03
      3.4359945156858203e-02 9.2153080696138423e-02
      -3.1569335883626738e-02 -8.6509555911190250e-02
      -1.8457896673921836e-02 2.0240702501663228e-02
      -1.5042771748071190e-01 -5.9933281813923142e-02
      7.4048871568912961e-02 -1.1741150357186474e-01</_></weights></my_nn>
</opencv_storage>
